{
    "0.weight": [
        [
            0.662043571472168,
            0.6285029053688049,
            0.029112644493579865,
            0.06931868940591812,
            0.40591415762901306,
            -0.3722124695777893,
            0.6388225555419922,
            1.2082569599151611
        ],
        [
            0.6894212365150452,
            0.20396503806114197,
            0.05308873951435089,
            -0.18655867874622345,
            0.7048664093017578,
            -0.08952739089727402,
            0.09125180542469025,
            0.23304687440395355
        ],
        [
            -0.27478089928627014,
            0.08161744475364685,
            -0.2644996643066406,
            -1.6713829040527344,
            -0.9015011191368103,
            1.179413914680481,
            0.3070472776889801,
            0.7911883592605591
        ],
        [
            0.05578957125544548,
            0.08511366695165634,
            0.07218533754348755,
            0.020379064604640007,
            -0.020228225737810135,
            0.05473317950963974,
            0.06469514966011047,
            0.0008696900331415236
        ],
        [
            0.6083637475967407,
            0.9361506104469299,
            -0.711520254611969,
            -0.20070184767246246,
            -0.1748483031988144,
            0.339628130197525,
            0.7623534202575684,
            0.16801302134990692
        ],
        [
            -0.3445674479007721,
            -0.03813184052705765,
            -0.16343070566654205,
            1.5995112657546997,
            1.1081981658935547,
            0.5117927193641663,
            0.6363294124603271,
            -0.21951164305210114
        ],
        [
            0.4721451997756958,
            0.24346968531608582,
            0.42703187465667725,
            0.6214016079902649,
            0.02432122826576233,
            0.39340734481811523,
            -0.6117610931396484,
            0.6963394284248352
        ],
        [
            0.49214068055152893,
            0.6909850835800171,
            -0.9424326419830322,
            -1.7078940868377686,
            -0.2561768889427185,
            -1.3056966066360474,
            1.1669232845306396,
            0.6242621541023254
        ],
        [
            0.1800110787153244,
            0.22794488072395325,
            0.1931719332933426,
            0.18038064241409302,
            0.06207624450325966,
            0.19347645342350006,
            0.25980082154273987,
            -0.006641981191933155
        ],
        [
            -1.3500409126281738,
            0.3774130940437317,
            -0.00712069496512413,
            -1.2519924640655518,
            0.6826027631759644,
            -0.1677393615245819,
            -0.15421129763126373,
            1.10759699344635
        ],
        [
            0.030155329033732414,
            0.03418232500553131,
            0.03383764624595642,
            0.012287084013223648,
            -0.019758718088269234,
            0.010991685092449188,
            0.029539870098233223,
            0.0036326369736343622
        ],
        [
            -0.043465714901685715,
            0.07867743819952011,
            0.6137773394584656,
            0.3451717793941498,
            -0.2885495126247406,
            -0.1949862688779831,
            0.3263900876045227,
            0.7104166746139526
        ],
        [
            0.43590986728668213,
            -0.6647821664810181,
            -0.35095924139022827,
            -0.3999488651752472,
            -0.1851934790611267,
            -0.2748974561691284,
            0.7814663052558899,
            0.31273993849754333
        ],
        [
            0.2355991005897522,
            -0.0905236229300499,
            -0.010235478170216084,
            0.026301264762878418,
            -0.031755074858665466,
            0.004599244799464941,
            -0.010676371864974499,
            1.050510048866272
        ],
        [
            -0.061536241322755814,
            -0.06245924159884453,
            -0.061836641281843185,
            0.0026119223330169916,
            0.03553333505988121,
            -0.025049682706594467,
            -0.035347118973731995,
            0.000959677854552865
        ],
        [
            0.13715368509292603,
            0.16568657755851746,
            0.14989860355854034,
            0.04120267927646637,
            -0.03590930253267288,
            0.09459410607814789,
            0.13242129981517792,
            0.008877395652234554
        ],
        [
            -0.11341916024684906,
            0.592423141002655,
            0.7294768691062927,
            0.40887904167175293,
            -0.9580249190330505,
            0.18218658864498138,
            0.8047991394996643,
            -0.48121604323387146
        ],
        [
            -2.5929832458496094,
            -1.2233787775039673,
            -1.1439112424850464,
            1.5153052806854248,
            -0.6921681761741638,
            0.49111124873161316,
            0.9384153485298157,
            0.4380170404911041
        ],
        [
            0.6485034823417664,
            -0.31926071643829346,
            0.9830329418182373,
            -0.6322620511054993,
            -1.4655652046203613,
            -1.3054805994033813,
            0.10351520031690598,
            0.20195700228214264
        ],
        [
            0.6775572896003723,
            -0.29024022817611694,
            0.6404204964637756,
            -0.33534160256385803,
            0.6219305396080017,
            1.0356906652450562,
            0.3753052353858948,
            -0.2541019022464752
        ],
        [
            0.36948710680007935,
            -0.3455192446708679,
            -0.6537761092185974,
            1.1819281578063965,
            0.482256144285202,
            0.22367975115776062,
            -0.14500460028648376,
            -0.914764404296875
        ],
        [
            -1.4386913776397705,
            0.9180442094802856,
            0.026315052062273026,
            -0.8206595778465271,
            -0.2736472487449646,
            1.0119138956069946,
            -0.09426508098840714,
            0.8886165022850037
        ],
        [
            0.6396684646606445,
            0.706917405128479,
            4.507430276134983e-05,
            -0.2271094173192978,
            -0.5171613693237305,
            0.4963706433773041,
            -0.4829142093658447,
            0.5824776291847229
        ],
        [
            0.8861321210861206,
            -0.06353718787431717,
            1.2662684917449951,
            -0.7066851258277893,
            1.0179089307785034,
            0.012904291041195393,
            -0.34670290350914,
            0.7884078621864319
        ],
        [
            -0.1361331045627594,
            0.1068151593208313,
            1.2686090469360352,
            -0.15559545159339905,
            0.2530551254749298,
            0.35488322377204895,
            1.4381190538406372,
            0.8137673735618591
        ],
        [
            0.33221185207366943,
            0.4139489531517029,
            0.5860382914543152,
            -1.3150196075439453,
            -1.1873407363891602,
            0.3307643234729767,
            0.07081970572471619,
            2.95654559135437
        ],
        [
            -0.011849558912217617,
            -0.014721288345754147,
            -0.033759504556655884,
            0.10210616141557693,
            0.08551245927810669,
            0.0663449689745903,
            0.05849406495690346,
            0.004442022647708654
        ],
        [
            0.6586986184120178,
            0.6588525176048279,
            0.062245678156614304,
            0.1523970067501068,
            0.3385438024997711,
            0.21002882719039917,
            0.6755792498588562,
            0.807865560054779
        ],
        [
            0.7341271638870239,
            -0.7068920135498047,
            -0.04499915614724159,
            -0.05044860765337944,
            0.6849427223205566,
            -0.9449023008346558,
            -1.2277257442474365,
            -0.06216687709093094
        ],
        [
            1.6270477771759033,
            -0.11266541481018066,
            0.4704176187515259,
            0.5156263709068298,
            -0.7414845824241638,
            -2.979506492614746,
            0.8461505174636841,
            0.27917641401290894
        ],
        [
            0.9995971918106079,
            0.6980034708976746,
            0.6126188039779663,
            -0.5939249396324158,
            0.4871952533721924,
            0.15068967640399933,
            -0.6282434463500977,
            -0.07732407003641129
        ],
        [
            0.2526642680168152,
            0.8753355741500854,
            0.12606853246688843,
            -0.361043781042099,
            0.09403244405984879,
            0.147585928440094,
            -0.5996843576431274,
            1.0610295534133911
        ],
        [
            0.5961111187934875,
            -0.8407682776451111,
            -0.452493816614151,
            0.18400385975837708,
            1.136360764503479,
            0.8506345152854919,
            0.2955262362957001,
            0.5313208103179932
        ],
        [
            0.10734615474939346,
            0.10973156988620758,
            0.11313369870185852,
            0.019582588225603104,
            -0.0427466481924057,
            0.06743281334638596,
            0.0757451206445694,
            0.014270968735218048
        ],
        [
            0.7795509696006775,
            0.5267311930656433,
            0.8070664405822754,
            -0.9633910059928894,
            0.45149073004722595,
            -0.07615626603364944,
            -1.0815640687942505,
            -0.3451838195323944
        ],
        [
            -0.008666595444083214,
            -0.010761575773358345,
            -0.02048630081117153,
            0.06187760457396507,
            0.050746019929647446,
            0.0394461490213871,
            0.03645327314734459,
            0.0010783736361190677
        ],
        [
            -0.1919364035129547,
            -0.02166481502354145,
            0.0031066029332578182,
            0.3499564230442047,
            0.4683416187763214,
            0.43808940052986145,
            0.7800516486167908,
            0.01019637193530798
        ],
        [
            1.520787000656128,
            -1.1652235984802246,
            -0.7945225834846497,
            -0.6255533695220947,
            -0.5918405055999756,
            0.8259521722793579,
            0.5897894501686096,
            1.2754462957382202
        ],
        [
            0.04496314004063606,
            -0.6098225712776184,
            -0.15863557159900665,
            0.26132622361183167,
            -0.3052022159099579,
            0.6200995445251465,
            0.588870644569397,
            0.4630179703235626
        ],
        [
            0.7702826261520386,
            -1.6002041101455688,
            0.9972696900367737,
            -0.33443930745124817,
            -0.06885781139135361,
            -0.8002427816390991,
            1.3157315254211426,
            -0.15016859769821167
        ],
        [
            0.5019779801368713,
            -0.9594687223434448,
            -0.7709524631500244,
            -0.5506580471992493,
            -1.1136951446533203,
            -0.9799222350120544,
            -0.17979443073272705,
            0.09579633176326752
        ],
        [
            -0.06137034296989441,
            -0.06450777500867844,
            -0.04885144904255867,
            -0.04119444265961647,
            -0.01506588701158762,
            -0.0456024631857872,
            -0.05035069212317467,
            -0.022225694730877876
        ],
        [
            0.9186513423919678,
            0.1395130753517151,
            -0.12130992859601974,
            -0.4683038890361786,
            0.833692729473114,
            -0.18993748724460602,
            1.285454511642456,
            1.186518907546997
        ],
        [
            0.2223912626504898,
            0.9415723085403442,
            -0.35301411151885986,
            -0.8473251461982727,
            -0.24641574919223785,
            0.28232353925704956,
            0.5509291291236877,
            1.0032879114151
        ],
        [
            -0.2449692189693451,
            0.19267995655536652,
            0.24110615253448486,
            -0.33997634053230286,
            -0.007866601459681988,
            0.556585431098938,
            -0.527518093585968,
            0.6395677924156189
        ],
        [
            -0.6304723024368286,
            1.0288971662521362,
            0.6321184039115906,
            -2.0601656436920166,
            0.4567437469959259,
            0.9496843218803406,
            -0.4105157256126404,
            0.584690511226654
        ],
        [
            0.2792491018772125,
            0.12850362062454224,
            -0.837164580821991,
            0.027084147557616234,
            -0.6545247435569763,
            -0.7149437665939331,
            -0.6558986306190491,
            0.10640007257461548
        ],
        [
            -0.03609742224216461,
            0.3344619572162628,
            1.3552395105361938,
            0.5625762343406677,
            -0.29961925745010376,
            -0.7510035634040833,
            -0.2680869996547699,
            -0.42107221484184265
        ],
        [
            0.20238345861434937,
            0.29481422901153564,
            0.07976361364126205,
            -0.08227203041315079,
            -0.018822800368070602,
            -0.27118638157844543,
            -0.3281260132789612,
            1.6394569873809814
        ],
        [
            0.5714271068572998,
            0.7443631887435913,
            0.9630793333053589,
            -0.6777190566062927,
            -0.9906648993492126,
            -0.3388884663581848,
            0.48520925641059875,
            0.3496275842189789
        ],
        [
            -2.176272392272949,
            0.3318943679332733,
            -1.5134642124176025,
            -1.6050611734390259,
            -1.1906520128250122,
            -0.6500606536865234,
            -0.12613213062286377,
            0.8510726094245911
        ],
        [
            0.6327332258224487,
            0.5316460728645325,
            0.6154301166534424,
            -0.36443063616752625,
            0.9293752908706665,
            1.4382299184799194,
            -1.3066595792770386,
            0.8373928070068359
        ],
        [
            0.6263068318367004,
            0.21629177033901215,
            0.10101144760847092,
            -0.06748120486736298,
            0.7194517850875854,
            -0.026882784441113472,
            0.13129281997680664,
            0.2913532555103302
        ],
        [
            0.8107486963272095,
            0.7110698819160461,
            0.6098260283470154,
            -0.5491005778312683,
            0.7314803004264832,
            0.550341010093689,
            -0.7523828744888306,
            -0.4906938374042511
        ],
        [
            -0.5469067692756653,
            0.3128010630607605,
            -0.12764298915863037,
            -1.3698034286499023,
            -0.8149877786636353,
            0.01292581856250763,
            -0.09447883069515228,
            0.4806579053401947
        ],
        [
            1.1621698141098022,
            -0.6345018148422241,
            0.24585099518299103,
            0.22323691844940186,
            -0.45367860794067383,
            1.3993830680847168,
            0.9170489311218262,
            -0.25025951862335205
        ],
        [
            -1.0011738538742065,
            0.4133165776729584,
            0.6391931772232056,
            0.49381721019744873,
            -0.2969513237476349,
            -1.1382113695144653,
            0.281942218542099,
            0.2856350839138031
        ],
        [
            0.23368413746356964,
            0.4660080671310425,
            0.2685048282146454,
            0.36748984456062317,
            0.31412389874458313,
            0.03302185609936714,
            -1.3375293016433716,
            0.30535295605659485
        ],
        [
            0.8076014518737793,
            -0.006954491138458252,
            -0.03135724365711212,
            0.903445839881897,
            -0.10067487508058548,
            -0.49290037155151367,
            0.7724601030349731,
            -0.5919556617736816
        ],
        [
            0.3544626533985138,
            0.13216537237167358,
            -0.005040788557380438,
            0.009593239054083824,
            0.12519598007202148,
            0.06357774138450623,
            -0.2860705852508545,
            0.48130184412002563
        ],
        [
            0.12322265654802322,
            0.16437749564647675,
            0.15035809576511383,
            0.1619250327348709,
            0.08543255180120468,
            0.15304991602897644,
            0.15202374756336212,
            -0.027036231011152267
        ],
        [
            0.0930870994925499,
            0.47467684745788574,
            -0.1889394074678421,
            0.04591522738337517,
            0.6272420287132263,
            -0.3542352616786957,
            1.0658260583877563,
            1.4629061222076416
        ],
        [
            -0.9885271787643433,
            1.0959681272506714,
            -0.7689815163612366,
            -0.2682817876338959,
            0.6820852160453796,
            -0.5000976920127869,
            0.19650554656982422,
            0.039191748946905136
        ],
        [
            -0.4693562984466553,
            0.007261978462338448,
            -0.3359917104244232,
            0.6646330952644348,
            0.9714087843894958,
            0.5243594646453857,
            -0.056437935680150986,
            -1.363869309425354
        ],
        [
            -0.3389202654361725,
            -0.1539633572101593,
            -0.25755664706230164,
            0.46016520261764526,
            0.734175443649292,
            0.33272889256477356,
            0.027366556227207184,
            -0.46388888359069824
        ],
        [
            0.33832237124443054,
            0.061597809195518494,
            -0.06855876743793488,
            -0.019064100459218025,
            0.13174617290496826,
            -0.07957711815834045,
            -0.37058180570602417,
            1.4638831615447998
        ],
        [
            0.32099708914756775,
            -0.03162343055009842,
            0.019501248374581337,
            0.058577172458171844,
            0.02783355489373207,
            0.10358643531799316,
            0.09938831627368927,
            1.7139815092086792
        ],
        [
            -0.21051234006881714,
            -0.2065320909023285,
            -0.20032982528209686,
            -0.11476022005081177,
            0.02209712564945221,
            -0.13239359855651855,
            -0.18150098621845245,
            0.008738551288843155
        ],
        [
            0.3651934862136841,
            0.40907880663871765,
            0.18603499233722687,
            -0.26561129093170166,
            -0.21377430856227875,
            0.1522071808576584,
            0.1106465756893158,
            1.8279484510421753
        ],
        [
            0.19496850669384003,
            0.3085646629333496,
            -1.080202579498291,
            -0.050618406385183334,
            -0.8308457136154175,
            1.2187541723251343,
            0.20145173370838165,
            0.484810471534729
        ],
        [
            0.5124433636665344,
            0.8642094731330872,
            0.24502301216125488,
            -0.22656843066215515,
            0.02060944214463234,
            -0.3388359546661377,
            -0.7796377539634705,
            -2.5643200874328613
        ],
        [
            -1.095671534538269,
            -1.0323926210403442,
            0.2978547215461731,
            -0.4030075669288635,
            0.6204992532730103,
            1.1411879062652588,
            0.9500604271888733,
            0.9335122108459473
        ],
        [
            0.6711975932121277,
            0.6899510622024536,
            0.6829410195350647,
            -0.18149696290493011,
            -0.8165802359580994,
            0.510941743850708,
            0.5296874046325684,
            0.6955897808074951
        ],
        [
            0.8039432168006897,
            0.6860032677650452,
            0.6618263721466064,
            -0.9233919382095337,
            0.32725590467453003,
            0.16786567866802216,
            -0.8519919514656067,
            -0.39050281047821045
        ],
        [
            0.3658428490161896,
            -0.018336160108447075,
            0.2042345553636551,
            0.06261621415615082,
            0.5221039056777954,
            -0.5185608267784119,
            0.10331617295742035,
            -0.5831955075263977
        ],
        [
            -0.22263379395008087,
            -0.48953649401664734,
            0.5632689595222473,
            0.9265058040618896,
            0.15407587587833405,
            1.5556226968765259,
            -0.6131076812744141,
            1.6682316064834595
        ],
        [
            0.02224613167345524,
            -0.31295129656791687,
            -0.20153912901878357,
            0.29762035608291626,
            -0.23785263299942017,
            0.45380473136901855,
            -0.040990300476551056,
            -0.02633952721953392
        ],
        [
            0.6937645673751831,
            0.4392189383506775,
            0.17044872045516968,
            -0.3029014766216278,
            1.0922120809555054,
            -0.24761222302913666,
            0.4193716049194336,
            -1.1443665027618408
        ],
        [
            1.1753005981445312,
            -0.5611808896064758,
            0.5888490080833435,
            1.0522464513778687,
            0.9273378849029541,
            -0.3231346011161804,
            -0.40661925077438354,
            -0.05205778405070305
        ],
        [
            0.06684060394763947,
            0.08578907698392868,
            0.0850539430975914,
            0.0150271812453866,
            -0.038110554218292236,
            0.029223548248410225,
            0.06654785573482513,
            0.00879507977515459
        ],
        [
            0.5870800614356995,
            -1.8833250999450684,
            -0.6057814955711365,
            0.8973534107208252,
            -0.17926083505153656,
            -0.3654382526874542,
            0.12537746131420135,
            -0.807147204875946
        ],
        [
            -0.16048023104667664,
            -0.2171013057231903,
            0.5311827063560486,
            -0.1240929365158081,
            -0.4071131646633148,
            -0.4070693850517273,
            -0.543068528175354,
            -1.2663500308990479
        ],
        [
            0.4582052230834961,
            0.20712748169898987,
            1.0597620010375977,
            -0.9483678936958313,
            -0.6565946936607361,
            0.42016181349754333,
            0.06378162652254105,
            0.29441988468170166
        ],
        [
            0.08331569284200668,
            0.49752435088157654,
            -0.31180018186569214,
            0.08241605758666992,
            -0.44420257210731506,
            0.33056455850601196,
            -0.3001250624656677,
            0.24406741559505463
        ],
        [
            0.5505865812301636,
            0.06009472534060478,
            -0.0012165659572929144,
            -0.08349230140447617,
            0.4731738269329071,
            -0.06306149810552597,
            0.18996936082839966,
            1.4134995937347412
        ],
        [
            -0.3632878065109253,
            0.5186989307403564,
            0.44044023752212524,
            1.3880808353424072,
            -1.4273107051849365,
            -0.6588622331619263,
            -0.6153016090393066,
            -0.7786332368850708
        ],
        [
            -0.8526738882064819,
            -0.3212308883666992,
            1.0467588901519775,
            -0.28668633103370667,
            -1.2392802238464355,
            0.4624837636947632,
            0.43092381954193115,
            2.181627035140991
        ],
        [
            -0.8542455434799194,
            -0.40939316153526306,
            -0.5085763931274414,
            -0.10647308826446533,
            0.6114727258682251,
            -0.06999034434556961,
            -0.7409945130348206,
            -3.7028110027313232
        ],
        [
            -0.8857092261314392,
            -0.028225913643836975,
            0.9258783459663391,
            0.10895471274852753,
            -0.3978980481624603,
            -1.3426944017410278,
            -0.340105265378952,
            -0.22381967306137085
        ],
        [
            0.4685104489326477,
            0.8373492956161499,
            -0.07249554246664047,
            -0.17636090517044067,
            -1.1042704582214355,
            -0.7192474007606506,
            0.013739152811467648,
            0.9028085470199585
        ],
        [
            0.23257721960544586,
            0.19980451464653015,
            0.17618396878242493,
            0.30869778990745544,
            0.23462361097335815,
            0.20865942537784576,
            0.20991022884845734,
            -2.502042770385742
        ],
        [
            0.4681137204170227,
            1.5763016939163208,
            -0.2973327338695526,
            -0.4638861119747162,
            1.146113634109497,
            0.3916607201099396,
            -1.5622984170913696,
            0.30394458770751953
        ],
        [
            0.7405701875686646,
            -0.33195024728775024,
            0.6570153832435608,
            -0.8621986508369446,
            0.4735563099384308,
            0.968518853187561,
            0.4463779032230377,
            -0.44767701625823975
        ],
        [
            -0.04818594083189964,
            0.3980373442173004,
            -0.7401939034461975,
            1.9565309286117554,
            1.2506023645401,
            -0.36535295844078064,
            -0.6320018172264099,
            0.0455850251019001
        ],
        [
            0.12281440198421478,
            0.15465188026428223,
            0.12766969203948975,
            0.05328940972685814,
            -0.011917367577552795,
            0.09719687700271606,
            0.13373780250549316,
            -0.005674379412084818
        ],
        [
            -0.9842504262924194,
            -0.8391795754432678,
            0.7513941526412964,
            -0.15631312131881714,
            0.1987842470407486,
            0.4870392978191376,
            -0.9559720158576965,
            0.26400166749954224
        ],
        [
            0.12756511569023132,
            0.16511575877666473,
            0.16671688854694366,
            0.01906687207520008,
            -0.0014597926056012511,
            0.07427451759576797,
            0.094495490193367,
            0.02779991179704666
        ],
        [
            -1.1213351488113403,
            -0.14111198484897614,
            0.0327603816986084,
            1.0970958471298218,
            -2.002202272415161,
            1.1821105480194092,
            1.4851495027542114,
            0.3930096924304962
        ],
        [
            -0.6197859644889832,
            0.39177176356315613,
            0.18889355659484863,
            0.4759436249732971,
            0.3229638338088989,
            -0.3107694685459137,
            -1.007386565208435,
            0.23970575630664825
        ],
        [
            0.03025888279080391,
            0.025896955281496048,
            0.03750431537628174,
            0.051493268460035324,
            0.018619729205965996,
            0.04877978563308716,
            0.03266046568751335,
            -0.012492433190345764
        ],
        [
            -1.8011159896850586,
            -0.3678416311740875,
            0.8010058403015137,
            0.46900928020477295,
            -0.4049132168292999,
            0.11068553477525711,
            -0.31680166721343994,
            1.1572647094726562
        ],
        [
            0.5240339636802673,
            0.3426259160041809,
            0.6081072092056274,
            0.4885545074939728,
            -0.22430391609668732,
            0.7751744389533997,
            0.49428924918174744,
            1.8699257373809814
        ],
        [
            0.35330191254615784,
            0.9571178555488586,
            0.6996312737464905,
            0.9019920825958252,
            -0.40853241086006165,
            -0.5397233963012695,
            0.5753045082092285,
            0.3815545439720154
        ],
        [
            -0.4188051223754883,
            0.40038254857063293,
            1.2177125215530396,
            0.20770667493343353,
            -1.1038780212402344,
            -1.226110577583313,
            0.378710001707077,
            0.437599241733551
        ],
        [
            0.3588801324367523,
            -1.1288392543792725,
            1.0608181953430176,
            -0.06175389513373375,
            1.1504552364349365,
            0.9326791167259216,
            0.6228117942810059,
            1.032814383506775
        ],
        [
            0.22103726863861084,
            0.05175837129354477,
            -0.1304890215396881,
            -0.034374844282865524,
            0.31258630752563477,
            -0.056921396404504776,
            -0.5237554311752319,
            0.7306104898452759
        ],
        [
            0.008751538582146168,
            0.015073017217218876,
            0.028949381783604622,
            -0.027631549164652824,
            -0.05690620839595795,
            -0.02173539437353611,
            -0.006130713503807783,
            0.011779919266700745
        ],
        [
            0.13100455701351166,
            0.15182408690452576,
            0.17051807045936584,
            0.007309027947485447,
            -0.017504265531897545,
            0.06467589735984802,
            0.07420782744884491,
            0.035289328545331955
        ],
        [
            0.23825612664222717,
            0.01703832298517227,
            0.048707589507102966,
            0.052450936287641525,
            0.001513867755420506,
            0.08277128636837006,
            0.08447995036840439,
            1.0311580896377563
        ],
        [
            0.057132504880428314,
            0.07619643956422806,
            0.058836065232753754,
            0.10413825511932373,
            0.055386342108249664,
            0.07941444963216782,
            0.09368107467889786,
            -0.011418359354138374
        ],
        [
            0.3108607828617096,
            0.48543626070022583,
            0.3192176818847656,
            0.3401816189289093,
            0.24810554087162018,
            0.08175390958786011,
            -1.268113136291504,
            0.27406272292137146
        ],
        [
            0.4800787568092346,
            0.7604599595069885,
            -0.1931713968515396,
            -1.0663217306137085,
            -0.08778367191553116,
            0.32699400186538696,
            0.0673353299498558,
            0.39251184463500977
        ],
        [
            0.4873403012752533,
            0.2717900574207306,
            0.15651994943618774,
            0.07463905215263367,
            0.03995354473590851,
            -0.022167343646287918,
            -0.6690585017204285,
            1.0864063501358032
        ],
        [
            0.7680691480636597,
            -1.0072871446609497,
            0.585354745388031,
            -0.28142592310905457,
            1.0602835416793823,
            1.0053837299346924,
            -0.7322642803192139,
            0.3419541120529175
        ],
        [
            -0.18424129486083984,
            0.6947520971298218,
            0.30203115940093994,
            -0.7303553223609924,
            -0.98768150806427,
            -0.22582951188087463,
            0.5459165573120117,
            0.0011893069604411721
        ],
        [
            0.6980624198913574,
            0.17277532815933228,
            0.49911803007125854,
            -0.2854343354701996,
            0.2608729600906372,
            -0.03694651275873184,
            -0.024530502036213875,
            2.652087450027466
        ],
        [
            0.36856600642204285,
            -0.3836275339126587,
            0.3159857392311096,
            -0.8520536422729492,
            -0.08489008247852325,
            0.6055587530136108,
            0.9085406064987183,
            -0.2065611630678177
        ],
        [
            -0.00915179681032896,
            1.0179517269134521,
            0.2914586067199707,
            -0.44546982645988464,
            -0.9485872387886047,
            -0.8713575005531311,
            -0.8506726026535034,
            0.08042992651462555
        ],
        [
            0.7004905343055725,
            0.8671037554740906,
            -0.3756101727485657,
            -1.2543678283691406,
            -0.105113685131073,
            -0.13077914714813232,
            0.6778126358985901,
            0.3345179855823517
        ],
        [
            0.2279689759016037,
            0.008153064176440239,
            -0.4875938892364502,
            -0.2987501919269562,
            0.34411463141441345,
            -0.5150807499885559,
            -0.11206872016191483,
            0.30844172835350037
        ],
        [
            0.5803847908973694,
            0.09196534007787704,
            0.7170183658599854,
            -0.9141353964805603,
            0.5282223224639893,
            0.7803562879562378,
            -0.8854109644889832,
            -0.9885335564613342
        ],
        [
            0.44687825441360474,
            0.2964674234390259,
            0.25727662444114685,
            -0.3129917085170746,
            0.19765357673168182,
            -0.03854633867740631,
            -0.00307913008145988,
            0.3867124617099762
        ],
        [
            0.11568106710910797,
            0.1466105878353119,
            0.14201265573501587,
            0.19574320316314697,
            0.08101510256528854,
            0.16452427208423615,
            0.15794514119625092,
            -0.04858950152993202
        ],
        [
            -0.09579528868198395,
            -0.0754731222987175,
            -0.05763387307524681,
            -0.08942898362874985,
            -0.05740027129650116,
            -0.11035723239183426,
            -0.11367389559745789,
            0.005427413620054722
        ],
        [
            -0.357794851064682,
            -0.1361517459154129,
            1.5233975648880005,
            -0.5497999787330627,
            1.4824339151382446,
            1.09534752368927,
            -1.0323235988616943,
            1.0301376581192017
        ],
        [
            0.04203667864203453,
            0.06155453994870186,
            0.08013196289539337,
            -0.04317682236433029,
            -0.08506910502910614,
            -0.013916466385126114,
            0.013835405930876732,
            0.03098759800195694
        ],
        [
            0.2747180759906769,
            0.06648924201726913,
            -0.8811882734298706,
            0.07740214467048645,
            -0.6851961612701416,
            -0.6351369619369507,
            -0.7272255420684814,
            0.3579619228839874
        ],
        [
            -0.239573672413826,
            0.39498552680015564,
            -0.012737337499856949,
            0.2694297730922699,
            0.24793653190135956,
            -0.324685662984848,
            -0.2603115141391754,
            0.6596710681915283
        ],
        [
            0.7175977826118469,
            0.8990380167961121,
            -0.22871467471122742,
            -1.1041172742843628,
            -0.17776991426944733,
            -0.025347286835312843,
            0.6544563174247742,
            0.29907333850860596
        ],
        [
            -0.06463288515806198,
            0.47486183047294617,
            -0.1801222562789917,
            0.4037226438522339,
            -0.05553984269499779,
            0.14441049098968506,
            0.10990376025438309,
            -0.07115811109542847
        ],
        [
            0.679210901260376,
            -1.1336314678192139,
            0.5126861929893494,
            -0.09038246423006058,
            -0.9120464324951172,
            0.42937803268432617,
            0.8275153636932373,
            -0.6715136766433716
        ],
        [
            0.6783244609832764,
            -0.9973515272140503,
            0.8603943586349487,
            -0.13146673142910004,
            0.14959512650966644,
            -0.15266603231430054,
            0.18208682537078857,
            -0.15860256552696228
        ],
        [
            0.07925418019294739,
            -0.16344940662384033,
            0.33830541372299194,
            0.2763200104236603,
            0.12039049714803696,
            -0.38307949900627136,
            -0.06826736778020859,
            0.4437572658061981
        ],
        [
            0.3631519079208374,
            0.5389175415039062,
            0.42374470829963684,
            -0.20955993235111237,
            -0.1996670812368393,
            0.26936978101730347,
            0.17308230698108673,
            0.6755765080451965
        ],
        [
            0.42140600085258484,
            0.9198422431945801,
            0.9406391382217407,
            -0.8741267919540405,
            -1.1652429103851318,
            -0.3596833646297455,
            0.46753665804862976,
            0.44723567366600037
        ],
        [
            -0.18415403366088867,
            0.794114887714386,
            -0.0705823227763176,
            -0.47971227765083313,
            -0.37818652391433716,
            -0.3560327887535095,
            -0.1902437061071396,
            2.0026187896728516
        ],
        [
            0.37244710326194763,
            0.25043463706970215,
            0.3810710608959198,
            0.07720479369163513,
            -0.06752695888280869,
            0.13175132870674133,
            0.1652487814426422,
            0.18213164806365967
        ],
        [
            0.25595879554748535,
            -0.8430688977241516,
            0.4432942867279053,
            -0.9071572422981262,
            0.5407007932662964,
            1.373813271522522,
            0.027397792786359787,
            -0.16262389719486237
        ],
        [
            0.8123518228530884,
            0.6347746253013611,
            0.308929979801178,
            -0.6099703907966614,
            -0.5777945518493652,
            0.7270086407661438,
            -0.19753146171569824,
            -0.4717276096343994
        ],
        [
            0.101551353931427,
            0.6628752946853638,
            -0.37045153975486755,
            0.05991523340344429,
            -0.24368403851985931,
            0.34862279891967773,
            0.2534739375114441,
            1.5047866106033325
        ],
        [
            -0.32031750679016113,
            0.28636661171913147,
            0.6963136792182922,
            -1.0067698955535889,
            -0.7262347340583801,
            -0.028222499415278435,
            -0.13904230296611786,
            0.19338661432266235
        ],
        [
            -0.03060368075966835,
            -0.01360873132944107,
            -0.028165943920612335,
            0.10160896182060242,
            0.0503043457865715,
            0.06320162862539291,
            0.04417252168059349,
            -0.010697710327804089
        ],
        [
            -0.7564393877983093,
            0.9964684247970581,
            0.5344196557998657,
            -0.5778404474258423,
            0.5788581967353821,
            0.836916983127594,
            0.2120727002620697,
            0.5637472867965698
        ],
        [
            0.13195854425430298,
            0.6146769523620605,
            0.34126943349838257,
            -0.3960508406162262,
            -0.37980011105537415,
            -0.39034539461135864,
            0.24579037725925446,
            -0.6835663318634033
        ],
        [
            0.11992736905813217,
            0.9425586462020874,
            0.3102109432220459,
            -1.3443548679351807,
            0.29604285955429077,
            0.6749550700187683,
            1.2308595180511475,
            -1.344079613685608
        ],
        [
            -0.2634001672267914,
            0.21553006768226624,
            0.46038252115249634,
            0.16888637840747833,
            0.1061825081706047,
            -0.298188716173172,
            0.4942333996295929,
            0.15406931936740875
        ],
        [
            0.0399448536336422,
            0.05973543971776962,
            0.05553387850522995,
            -0.0020135350059717894,
            -0.04312621057033539,
            0.02508402243256569,
            0.042831555008888245,
            0.006989059969782829
        ],
        [
            -0.3955027163028717,
            -0.647955596446991,
            -0.9450690746307373,
            0.046727459877729416,
            -0.6883103251457214,
            0.21784649789333344,
            0.29163286089897156,
            -0.7714569568634033
        ],
        [
            0.0541706345975399,
            0.06722734868526459,
            0.050594184547662735,
            0.12924915552139282,
            0.056484729051589966,
            0.10539410263299942,
            0.09431793540716171,
            -0.005836685188114643
        ],
        [
            0.5771791934967041,
            0.05031287670135498,
            -0.10054758936166763,
            -0.20296885073184967,
            0.5334976315498352,
            -0.033601898699998856,
            0.1549111008644104,
            1.1897969245910645
        ],
        [
            0.3152531385421753,
            0.3002380430698395,
            0.017543336376547813,
            0.07516617327928543,
            -0.12470036745071411,
            0.23940803110599518,
            0.039422422647476196,
            0.709659993648529
        ],
        [
            -0.012968599796295166,
            -0.6850736737251282,
            -1.2217622995376587,
            -0.6848835945129395,
            -0.46929386258125305,
            2.604384660720825,
            -0.5055241584777832,
            0.6978803277015686
        ],
        [
            0.3969302773475647,
            -0.1267787218093872,
            0.780680239200592,
            -0.4536950886249542,
            -0.04686199501156807,
            0.7270451784133911,
            -0.024227922782301903,
            -0.7044628858566284
        ],
        [
            -0.10826355963945389,
            -1.0960546731948853,
            -0.6406517624855042,
            0.3205951750278473,
            -0.43372485041618347,
            0.5217057466506958,
            0.651504397392273,
            0.5501977801322937
        ],
        [
            -0.5613503456115723,
            -1.6124314069747925,
            0.286905974149704,
            2.330841064453125,
            -0.6866961121559143,
            -1.2257059812545776,
            0.45052891969680786,
            0.001245480845682323
        ],
        [
            0.6910521388053894,
            0.09019538015127182,
            0.026076842099428177,
            -0.4560680687427521,
            0.5277079939842224,
            -0.11683108657598495,
            1.0527374744415283,
            0.7518728375434875
        ],
        [
            0.21519231796264648,
            0.17341360449790955,
            0.17616312205791473,
            0.5274439454078674,
            0.6300925612449646,
            -0.19051577150821686,
            0.7208174467086792,
            1.1500473022460938
        ],
        [
            -0.12984272837638855,
            0.5198668241500854,
            0.1807853877544403,
            -0.2675844728946686,
            -0.6326889395713806,
            -0.1041547879576683,
            -0.14714378118515015,
            0.6309642791748047
        ],
        [
            -0.1598265916109085,
            0.5390937328338623,
            -0.16169238090515137,
            -0.014989352785050869,
            0.4291325807571411,
            0.029110312461853027,
            -0.5208185911178589,
            1.5353941917419434
        ],
        [
            0.11355285346508026,
            0.6022567749023438,
            0.1621958464384079,
            -0.5546752214431763,
            -0.32660073041915894,
            -0.2801569104194641,
            -0.4467468559741974,
            -3.4645700454711914
        ],
        [
            0.6300264596939087,
            0.538679838180542,
            0.19231511652469635,
            0.056009430438280106,
            0.2835470139980316,
            -0.2825353145599365,
            0.5699477195739746,
            0.5933502316474915
        ],
        [
            0.3446885943412781,
            0.5381243228912354,
            0.8278811573982239,
            -0.06607269495725632,
            -1.0740867853164673,
            0.31974053382873535,
            0.5291908383369446,
            0.17238302528858185
        ],
        [
            0.4732588231563568,
            0.35624125599861145,
            -0.032764825969934464,
            0.20342837274074554,
            0.029783761128783226,
            0.8834249973297119,
            0.44598835706710815,
            -3.004387378692627
        ],
        [
            0.13191179931163788,
            0.16114911437034607,
            0.1459965705871582,
            0.020353714004158974,
            -0.038712237030267715,
            0.08124684542417526,
            0.11576925963163376,
            0.011013752780854702
        ],
        [
            0.7164538502693176,
            0.6037803292274475,
            0.4371633231639862,
            -0.10891414433717728,
            -0.3723517060279846,
            0.19589954614639282,
            0.40919768810272217,
            0.9727717041969299
        ],
        [
            0.35666123032569885,
            0.24856917560100555,
            -0.798285722732544,
            0.29134029150009155,
            -0.4431498646736145,
            0.2610246539115906,
            -0.609234631061554,
            0.48185062408447266
        ],
        [
            0.7166438102722168,
            0.4118671417236328,
            0.5774078965187073,
            -0.32352468371391296,
            -0.124673992395401,
            0.4516437351703644,
            0.783062219619751,
            0.6827132701873779
        ],
        [
            0.6866950392723083,
            -0.1662987768650055,
            -0.15607954561710358,
            0.09812465310096741,
            -0.6200916767120361,
            -0.41588661074638367,
            -0.6367316842079163,
            -0.3005000650882721
        ],
        [
            -0.06899067014455795,
            0.17709100246429443,
            0.26258668303489685,
            1.1814517974853516,
            -0.15608511865139008,
            0.8180156350135803,
            0.5260918736457825,
            -0.20134741067886353
        ],
        [
            -0.4052150547504425,
            0.5225355625152588,
            -0.1932833045721054,
            -1.3260340690612793,
            -0.8663668036460876,
            0.26847583055496216,
            0.25348880887031555,
            0.4926387369632721
        ],
        [
            -0.4644935429096222,
            -0.06482086330652237,
            0.7296729683876038,
            0.5922749638557434,
            0.44297587871551514,
            -0.08622269332408905,
            -0.10623825341463089,
            0.328887015581131
        ],
        [
            0.08046247065067291,
            0.13083092868328094,
            0.12648539245128632,
            0.14393135905265808,
            0.05306188017129898,
            0.1356959044933319,
            0.15556113421916962,
            -0.0265269223600626
        ],
        [
            -0.21085982024669647,
            0.49972134828567505,
            -0.09172656387090683,
            -1.2442418336868286,
            -0.7410361766815186,
            0.12351632118225098,
            0.30020806193351746,
            0.32481613755226135
        ],
        [
            0.32653820514678955,
            0.39082401990890503,
            0.37185904383659363,
            0.3082716464996338,
            0.08290190249681473,
            0.32102930545806885,
            0.3715050220489502,
            1.1725997924804688
        ],
        [
            0.5601129531860352,
            0.16444452106952667,
            0.2761508822441101,
            -0.061661843210458755,
            1.0636719465255737,
            -0.40809816122055054,
            0.3689829707145691,
            -1.191624641418457
        ],
        [
            0.17828090488910675,
            0.20350711047649384,
            0.19354084134101868,
            0.05981314554810524,
            -0.029208727180957794,
            0.12833423912525177,
            0.16574668884277344,
            0.012166160158813
        ],
        [
            0.6685642600059509,
            0.027308251708745956,
            -0.7555402517318726,
            0.13966643810272217,
            -0.3509705364704132,
            -1.0777896642684937,
            -0.2793521583080292,
            0.7552410960197449
        ],
        [
            0.4461793303489685,
            1.054628849029541,
            -0.6870349049568176,
            -0.4997367262840271,
            -0.9154384732246399,
            -1.1607800722122192,
            0.16878831386566162,
            -1.3202182054519653
        ],
        [
            0.34275782108306885,
            -0.055025190114974976,
            0.01571686938405037,
            0.1062459722161293,
            0.07689318060874939,
            0.12367036938667297,
            0.12539958953857422,
            1.751738429069519
        ],
        [
            0.2858888506889343,
            0.458694726228714,
            0.5281973481178284,
            -0.5580353736877441,
            -0.8334220051765442,
            0.21601776778697968,
            -0.0007710366044193506,
            0.20628511905670166
        ],
        [
            0.5269979238510132,
            0.11176826059818268,
            -0.9794324636459351,
            0.09497568756341934,
            -0.7420846819877625,
            -0.6664723753929138,
            -0.7947859764099121,
            0.43803608417510986
        ],
        [
            0.28103822469711304,
            0.34164097905158997,
            0.29571211338043213,
            0.1567448377609253,
            0.02733195200562477,
            0.24938228726387024,
            0.31599166989326477,
            -0.0011870285961776972
        ],
        [
            1.255906343460083,
            0.7436255216598511,
            0.6711942553520203,
            -0.6958442330360413,
            0.33312803506851196,
            1.3693076372146606,
            0.380767822265625,
            1.8500072956085205
        ],
        [
            -0.7992759943008423,
            -1.228919506072998,
            1.149432897567749,
            0.3510870337486267,
            0.022095153108239174,
            0.1798904985189438,
            -0.5845382809638977,
            0.5493913292884827
        ],
        [
            0.39162522554397583,
            0.2896716892719269,
            0.08676477521657944,
            -0.055912408977746964,
            -0.07233686745166779,
            -0.16481973230838776,
            -0.2815980911254883,
            1.3900492191314697
        ],
        [
            0.25723809003829956,
            0.5220937132835388,
            0.2298143059015274,
            -0.23895758390426636,
            -0.29447653889656067,
            -0.1347699761390686,
            -0.09112638980150223,
            1.178851842880249
        ],
        [
            -0.007828705944120884,
            0.18238209187984467,
            -0.15165133774280548,
            1.087913155555725,
            0.8295127749443054,
            0.5948023796081543,
            0.5084496140480042,
            -0.6357654333114624
        ],
        [
            0.6508837342262268,
            0.11846797168254852,
            -0.042884454131126404,
            -0.21424122154712677,
            0.9235783815383911,
            -0.14951877295970917,
            0.09470558166503906,
            0.23793402314186096
        ],
        [
            0.2758347690105438,
            0.33511921763420105,
            0.26907631754875183,
            0.12916378676891327,
            -0.015236355364322662,
            0.20229007303714752,
            0.3060303330421448,
            -0.0031734828371554613
        ],
        [
            0.3825543224811554,
            0.8544072508811951,
            0.11402978003025055,
            -0.3679426312446594,
            0.05410585552453995,
            0.21445679664611816,
            -0.6916797161102295,
            0.8449507355690002
        ],
        [
            0.44408556818962097,
            0.6119408011436462,
            0.28469109535217285,
            -0.2658604383468628,
            -0.42929884791374207,
            0.6326496005058289,
            0.6438021063804626,
            0.27287018299102783
        ],
        [
            0.0648835301399231,
            0.6683664321899414,
            0.046507321298122406,
            -0.03270266205072403,
            0.165689617395401,
            0.2115253061056137,
            -0.2109203338623047,
            1.1031575202941895
        ],
        [
            0.9273096323013306,
            0.045895326882600784,
            -0.8765076994895935,
            -0.06625257432460785,
            0.3443867266178131,
            1.4135996103286743,
            0.385201632976532,
            0.18201249837875366
        ],
        [
            -0.015755748376250267,
            1.5178698301315308,
            -1.1922266483306885,
            1.6843502521514893,
            -0.41117656230926514,
            0.6413805484771729,
            -0.1709987372159958,
            0.9972822666168213
        ],
        [
            0.7047047019004822,
            -0.020829634740948677,
            1.0291942358016968,
            -0.4311082661151886,
            0.13896463811397552,
            0.3213087320327759,
            0.8926466107368469,
            -0.21554838120937347
        ],
        [
            0.09290886670351028,
            0.2530249059200287,
            -1.7309556007385254,
            0.92494136095047,
            0.7232806086540222,
            -0.9636173248291016,
            -0.17525261640548706,
            1.142342209815979
        ],
        [
            0.5179967284202576,
            -0.07091622799634933,
            -0.6579426527023315,
            0.01632186770439148,
            -1.0568150281906128,
            0.19570691883563995,
            0.07461922615766525,
            -0.8253608345985413
        ],
        [
            -0.08150377124547958,
            0.746905505657196,
            0.04876432195305824,
            0.268684059381485,
            0.3367682993412018,
            -0.42773425579071045,
            -0.18062520027160645,
            0.9185155034065247
        ],
        [
            0.25480130314826965,
            -0.6835330128669739,
            0.018002139404416084,
            0.27917298674583435,
            0.1602003574371338,
            -0.35321223735809326,
            0.22141335904598236,
            0.616097092628479
        ],
        [
            0.17784260213375092,
            0.9806761145591736,
            -0.223465695977211,
            0.38672178983688354,
            0.39035502076148987,
            0.3751944303512573,
            -0.24843508005142212,
            -0.1855369359254837
        ],
        [
            0.5887464284896851,
            0.3696644902229309,
            0.819115161895752,
            0.44272539019584656,
            -0.730872631072998,
            1.2075737714767456,
            0.5941302180290222,
            1.055177092552185
        ],
        [
            0.021476948633790016,
            0.02992170862853527,
            0.06217816472053528,
            -0.05495567247271538,
            -0.11240693181753159,
            -0.04059318080544472,
            -0.01997637376189232,
            0.023275000974535942
        ],
        [
            0.7945017218589783,
            0.3829658329486847,
            0.4148392975330353,
            -1.4086698293685913,
            -0.8491479754447937,
            -1.6973903179168701,
            -0.5162377953529358,
            -0.4692850708961487
        ],
        [
            0.11344082653522491,
            0.13692010939121246,
            0.10842786729335785,
            0.04550357535481453,
            -0.018122827634215355,
            0.08183786273002625,
            0.11258775740861893,
            0.004597168415784836
        ],
        [
            -0.040026187896728516,
            -0.4536128640174866,
            0.20025138556957245,
            0.3924984037876129,
            0.005552020389586687,
            0.5946906208992004,
            -0.05866776034235954,
            0.8234902024269104
        ],
        [
            0.35981735587120056,
            -0.1862102448940277,
            1.1552962064743042,
            0.4114585518836975,
            -1.4296661615371704,
            -0.6882203817367554,
            0.013667375780642033,
            -0.5520260334014893
        ],
        [
            0.021290089935064316,
            -0.4291338324546814,
            0.7075351476669312,
            -0.617380678653717,
            -0.7244356870651245,
            -0.19897106289863586,
            0.3800927996635437,
            0.23325538635253906
        ],
        [
            -0.7124751806259155,
            -0.7706660032272339,
            1.313880443572998,
            0.8202947378158569,
            -1.308298110961914,
            1.2553224563598633,
            1.5339595079421997,
            0.3375135064125061
        ],
        [
            -0.12138981372117996,
            0.7525894641876221,
            0.5864006876945496,
            -0.5381007790565491,
            1.5824581384658813,
            0.11851514875888824,
            -0.2745366394519806,
            -1.997994303703308
        ],
        [
            -0.5767238736152649,
            -0.6307328343391418,
            0.8044468760490417,
            0.6526150107383728,
            1.2680457830429077,
            -1.206684947013855,
            -0.7973646521568298,
            1.7723417282104492
        ],
        [
            -0.06507071852684021,
            0.03785321116447449,
            0.6252127289772034,
            0.36025887727737427,
            -0.2940810024738312,
            -0.21391910314559937,
            0.32199573516845703,
            0.6162567138671875
        ],
        [
            0.30979135632514954,
            0.16660761833190918,
            0.10564449429512024,
            0.10262653976678848,
            -0.02661530300974846,
            0.08034396916627884,
            0.10360970348119736,
            1.4390417337417603
        ],
        [
            0.45457735657691956,
            0.018118564039468765,
            -0.19319508969783783,
            -0.19306883215904236,
            0.5278242826461792,
            0.014519529417157173,
            0.021991997957229614,
            1.4378401041030884
        ],
        [
            0.18720605969429016,
            0.20325511693954468,
            0.24132035672664642,
            -0.011685842648148537,
            -0.16863247752189636,
            0.05398358032107353,
            0.1268339604139328,
            0.04646793752908707
        ],
        [
            0.6664336323738098,
            0.6695848703384399,
            -1.3518049716949463,
            -0.4827270805835724,
            1.0111991167068481,
            -0.8293809294700623,
            -0.7682130336761475,
            -2.0178098678588867
        ],
        [
            -1.2954580783843994,
            -1.954580307006836,
            -1.3460546731948853,
            -0.894612729549408,
            -0.1246693879365921,
            -1.08303964138031,
            2.3196685314178467,
            0.5696938633918762
        ],
        [
            0.7695320844650269,
            0.46811115741729736,
            0.6313477158546448,
            0.6709249019622803,
            -0.91484135389328,
            0.23718006908893585,
            1.4988069534301758,
            -0.3608337640762329
        ],
        [
            0.6487795114517212,
            -0.9386099576950073,
            -0.8321852087974548,
            1.436333417892456,
            -1.0173742771148682,
            -0.09239576011896133,
            0.29795774817466736,
            -0.08444470912218094
        ],
        [
            -0.1551571488380432,
            0.5767457485198975,
            -0.16379140317440033,
            -0.011367426253855228,
            0.4459325969219208,
            0.053809016942977905,
            -0.5214365720748901,
            1.6205265522003174
        ],
        [
            0.13355562090873718,
            0.13404862582683563,
            0.11627654731273651,
            0.2353614717721939,
            0.14177711308002472,
            0.20483927428722382,
            0.19793587923049927,
            0.0022731225471943617
        ],
        [
            0.6883842349052429,
            0.48012831807136536,
            -0.2125425934791565,
            -0.5095027685165405,
            -0.5279461145401001,
            -0.0779397189617157,
            0.4314349293708801,
            1.6074140071868896
        ],
        [
            -1.0631375312805176,
            -0.9973549842834473,
            0.6964446306228638,
            0.8886657953262329,
            0.4011804461479187,
            -2.5627171993255615,
            -0.4271043539047241,
            0.8926329612731934
        ],
        [
            -0.6080800294876099,
            -0.046673137694597244,
            -0.19812707602977753,
            0.10465861111879349,
            0.5004248023033142,
            1.2126301527023315,
            -0.6605265736579895,
            -0.14310410618782043
        ],
        [
            0.5758187770843506,
            0.7929444313049316,
            0.4553203582763672,
            0.2434404343366623,
            0.7342017292976379,
            0.3020928204059601,
            -0.7873005867004395,
            0.8898041844367981
        ],
        [
            0.42571356892585754,
            1.0491114854812622,
            0.39641302824020386,
            0.7650845646858215,
            -1.7492653131484985,
            0.4393381178379059,
            -2.0286176204681396,
            -0.08473113179206848
        ],
        [
            0.6496378183364868,
            -0.632500171661377,
            0.9161099195480347,
            0.39142870903015137,
            0.23627635836601257,
            0.8548583984375,
            -0.17044737935066223,
            -1.1684898138046265
        ],
        [
            0.2665780782699585,
            0.31501322984695435,
            0.27724745869636536,
            0.11728537827730179,
            -0.013371674343943596,
            0.20328858494758606,
            0.28114786744117737,
            0.007639792747795582
        ],
        [
            0.7668645977973938,
            0.3132304549217224,
            -0.5391916036605835,
            -0.14976993203163147,
            -1.1727828979492188,
            -1.2623878717422485,
            0.04550499469041824,
            0.8646131157875061
        ],
        [
            0.35257819294929504,
            -0.07606615126132965,
            0.71917325258255,
            -0.3392452895641327,
            -0.409595251083374,
            0.1585942804813385,
            0.25793954730033875,
            -0.8173065185546875
        ],
        [
            0.7072937488555908,
            -0.8121588230133057,
            -0.5171497464179993,
            1.020164966583252,
            0.7694103121757507,
            -0.5324505567550659,
            0.07546522468328476,
            -0.7266664505004883
        ],
        [
            -0.9208948016166687,
            0.9213831424713135,
            0.6247819662094116,
            -0.2950816750526428,
            0.14554078876972198,
            0.7375032901763916,
            0.3923182785511017,
            0.21936474740505219
        ],
        [
            -0.6859778165817261,
            -0.0760909765958786,
            -1.4043341875076294,
            -0.7361599206924438,
            0.05554523691534996,
            0.5483888983726501,
            0.0006783498683944345,
            -0.1374351680278778
        ],
        [
            0.11121529340744019,
            -0.7722875475883484,
            -0.19986757636070251,
            0.34417659044265747,
            -0.3825525939464569,
            0.8611415028572083,
            0.8388444781303406,
            0.3016892671585083
        ],
        [
            0.05386485531926155,
            0.08355847001075745,
            0.07041783630847931,
            0.11073312908411026,
            0.07104454934597015,
            0.09342098981142044,
            0.09934520721435547,
            -0.000631955626886338
        ],
        [
            -0.46491533517837524,
            -0.280447781085968,
            0.7470747828483582,
            -1.266752004623413,
            -0.06717342138290405,
            1.0117026567459106,
            0.6479333639144897,
            0.5756440758705139
        ],
        [
            0.2970985174179077,
            0.7439978122711182,
            -0.9770753979682922,
            0.6765024065971375,
            0.042018622159957886,
            -1.2401516437530518,
            -0.614835798740387,
            -1.1719671487808228
        ],
        [
            0.20154888927936554,
            -0.38334861397743225,
            -0.2693890631198883,
            0.8388985991477966,
            0.33946049213409424,
            -0.05461963266134262,
            -0.3570747971534729,
            -0.7758069634437561
        ],
        [
            -0.20238453149795532,
            0.06089014932513237,
            0.286723256111145,
            -1.318688988685608,
            -0.3746694028377533,
            0.3725062310695648,
            0.3611065149307251,
            -2.1618449687957764
        ],
        [
            0.37550848722457886,
            0.30421921610832214,
            -0.6115573048591614,
            0.4081346094608307,
            -0.5087090730667114,
            0.5149295330047607,
            -0.4620037078857422,
            0.4252692461013794
        ],
        [
            0.200986847281456,
            0.5312852263450623,
            0.2599700391292572,
            0.1749979555606842,
            0.21138495206832886,
            -0.06503034383058548,
            -1.3991659879684448,
            0.38381218910217285
        ],
        [
            0.1709887832403183,
            0.20786219835281372,
            0.18540896475315094,
            0.06595202535390854,
            -0.023905491456389427,
            0.12078255414962769,
            0.18506619334220886,
            0.005989666562527418
        ],
        [
            -0.08534369617700577,
            -0.8363346457481384,
            0.7821807861328125,
            -1.0138020515441895,
            -0.6215711832046509,
            -0.36584073305130005,
            0.9502307176589966,
            -0.0017790154088288546
        ],
        [
            0.07384804636240005,
            -0.7240802049636841,
            0.13043248653411865,
            0.1503198891878128,
            -0.4657140076160431,
            0.6780105233192444,
            0.5193597674369812,
            0.7182251214981079
        ],
        [
            0.8203191757202148,
            -0.6011690497398376,
            0.6875572204589844,
            -0.0797385573387146,
            -0.15753713250160217,
            -1.0316969156265259,
            -0.7909005284309387,
            -1.5089596509933472
        ],
        [
            -0.4915160834789276,
            -1.0158889293670654,
            0.9090310335159302,
            0.05024706572294235,
            1.3445199728012085,
            1.4044039249420166,
            -0.6712490916252136,
            1.6366811990737915
        ],
        [
            0.5626994371414185,
            -0.043545912951231,
            0.8503583669662476,
            -0.8917083144187927,
            -0.06945093721151352,
            0.883956253528595,
            0.6748802065849304,
            -0.10518553107976913
        ],
        [
            1.3857296705245972,
            1.1268833875656128,
            0.5290306806564331,
            0.3181222379207611,
            0.1350099891424179,
            -1.766131043434143,
            -0.22888857126235962,
            0.2565903067588806
        ],
        [
            0.48312899470329285,
            0.1937839835882187,
            0.5675632953643799,
            -1.08451509475708,
            -0.023217905312776566,
            0.4411708116531372,
            1.055956482887268,
            0.6829798817634583
        ],
        [
            -0.4899032711982727,
            0.3362855315208435,
            -0.7509978413581848,
            0.200847327709198,
            -0.31317925453186035,
            0.18941333889961243,
            0.33934450149536133,
            -0.8951367139816284
        ],
        [
            0.799232542514801,
            1.0729165077209473,
            -0.05005984008312225,
            -0.3539346754550934,
            -1.780684232711792,
            -0.07830590754747391,
            0.3941478133201599,
            0.7453866004943848
        ],
        [
            0.14246629178524017,
            0.1811254918575287,
            0.15432940423488617,
            0.06120067089796066,
            -0.019854193553328514,
            0.10882660746574402,
            0.1580006331205368,
            0.0010269765043631196
        ],
        [
            -0.47561460733413696,
            -0.15950240194797516,
            -0.10901650786399841,
            -0.9488402605056763,
            -0.7988839149475098,
            -0.35167375206947327,
            -0.622390866279602,
            -0.5821517109870911
        ],
        [
            0.08803179115056992,
            -0.28074321150779724,
            0.18658193945884705,
            0.14766740798950195,
            0.7096275687217712,
            0.41184598207473755,
            -0.6441078782081604,
            -0.48821476101875305
        ],
        [
            0.8697414994239807,
            1.0693422555923462,
            0.13736823201179504,
            -1.4642390012741089,
            -1.0392186641693115,
            0.5286691188812256,
            0.7219857573509216,
            2.1192991733551025
        ],
        [
            0.32174646854400635,
            0.45545056462287903,
            0.21985185146331787,
            -0.114866241812706,
            -0.26807811856269836,
            0.1626621037721634,
            0.30944880843162537,
            0.6721905469894409
        ],
        [
            1.0497773885726929,
            -1.297444462776184,
            0.34430131316185,
            -0.48210132122039795,
            -1.0785654783248901,
            -0.48991766571998596,
            -0.45301553606987,
            0.48904097080230713
        ],
        [
            0.6139442920684814,
            0.37179818749427795,
            0.7045426964759827,
            0.4204397201538086,
            -0.6168586611747742,
            0.5656464695930481,
            0.7138208746910095,
            1.0653156042099
        ],
        [
            0.5766319036483765,
            -0.30212289094924927,
            -0.02810085378587246,
            -0.25604447722435,
            0.4786888659000397,
            0.5771486759185791,
            -1.2991328239440918,
            -0.18509455025196075
        ],
        [
            -2.014406204223633,
            0.8926729559898376,
            0.7328786849975586,
            -0.5626824498176575,
            0.1923786997795105,
            -0.09245035797357559,
            0.9242832064628601,
            -0.1066255122423172
        ],
        [
            -0.025142928585410118,
            0.24552248418331146,
            0.19394591450691223,
            1.0541908740997314,
            -0.20742325484752655,
            0.4473871886730194,
            0.6176266074180603,
            -0.14176639914512634
        ],
        [
            0.1470547616481781,
            0.010938291437923908,
            -0.4460276961326599,
            -0.5126674175262451,
            0.7313448786735535,
            -0.34139949083328247,
            0.8731662631034851,
            0.7283292412757874
        ],
        [
            -0.060821715742349625,
            0.16947917640209198,
            -0.0052432287484407425,
            -0.36906862258911133,
            -0.043075624853372574,
            1.5149222612380981,
            -0.1724626123905182,
            0.13761372864246368
        ],
        [
            0.5566720366477966,
            0.32102951407432556,
            0.5300623178482056,
            -0.3990274965763092,
            0.15952681005001068,
            0.6434921026229858,
            0.12908115983009338,
            0.28553205728530884
        ],
        [
            0.22463206946849823,
            -0.18851880729198456,
            -0.29684019088745117,
            -0.062262676656246185,
            0.23058420419692993,
            -0.17804554104804993,
            -0.43561628460884094,
            0.5277342796325684
        ],
        [
            0.03970315307378769,
            0.05931727588176727,
            0.03939441218972206,
            0.0328679233789444,
            -0.004054829012602568,
            0.042809415608644485,
            0.07556025683879852,
            0.0011613046517595649
        ],
        [
            0.25018805265426636,
            0.5198143124580383,
            0.5210955142974854,
            -0.04929641634225845,
            0.03025510348379612,
            -0.037844397127628326,
            -0.06455759704113007,
            0.16330046951770782
        ],
        [
            0.6132208108901978,
            0.059592925012111664,
            0.4428552985191345,
            0.17401333153247833,
            0.5373220443725586,
            0.1801389455795288,
            0.6242467164993286,
            0.6240556836128235
        ],
        [
            0.2084825187921524,
            -0.14347557723522186,
            -0.05899280682206154,
            0.0010623170528560877,
            -0.03712178021669388,
            -0.011684968136250973,
            -0.04065899923443794,
            0.9894081354141235
        ],
        [
            -0.057442229241132736,
            -0.23200280964374542,
            -0.14543096721172333,
            0.10544110089540482,
            1.1884044408798218,
            0.03938816860318184,
            -1.0164670944213867,
            1.9773443937301636
        ],
        [
            0.05671429634094238,
            0.5141579508781433,
            0.3916955590248108,
            -0.30104923248291016,
            -0.3677273690700531,
            0.07601713389158249,
            0.39870011806488037,
            0.5821613669395447
        ],
        [
            0.033957839012145996,
            -0.07801679521799088,
            -0.0810064822435379,
            -0.034544117748737335,
            -0.0009227670379914343,
            -0.1481306552886963,
            -0.1278274953365326,
            1.6332192420959473
        ],
        [
            0.4054674208164215,
            0.4397704005241394,
            -0.8846195340156555,
            0.5470253825187683,
            -0.45772722363471985,
            0.2916575074195862,
            -0.8497554063796997,
            0.3826729953289032
        ],
        [
            -0.6662506461143494,
            1.136181116104126,
            0.92343670129776,
            -0.8665315508842468,
            -0.3452107310295105,
            1.0869685411453247,
            0.30652979016304016,
            0.9777491688728333
        ],
        [
            -0.3079307973384857,
            0.2630714774131775,
            -1.4096442461013794,
            -1.0992940664291382,
            -0.44717296957969666,
            -0.9826281666755676,
            0.32712215185165405,
            -0.49747970700263977
        ],
        [
            0.40656694769859314,
            -0.22493897378444672,
            1.1756969690322876,
            -0.984908401966095,
            -0.4657081365585327,
            -0.04181207716464996,
            -0.35685276985168457,
            0.17816561460494995
        ],
        [
            -0.017656126990914345,
            -0.11173359304666519,
            -0.2515579164028168,
            0.4958706796169281,
            0.15970486402511597,
            0.11276482045650482,
            0.11170324683189392,
            0.6436551809310913
        ],
        [
            0.9643831253051758,
            -0.001350299222394824,
            1.1982113122940063,
            -0.3870670199394226,
            -0.7891575694084167,
            -0.23369094729423523,
            0.38877272605895996,
            0.16200457513332367
        ],
        [
            -0.5785638093948364,
            -0.26890289783477783,
            -0.7661374807357788,
            -0.1571887731552124,
            -0.1839112937450409,
            0.6476609110832214,
            -0.17860957980155945,
            -0.10686779767274857
        ],
        [
            1.0207816362380981,
            0.28173476457595825,
            0.5099018216133118,
            -0.7102612257003784,
            0.08918152749538422,
            -0.2714119851589203,
            0.20655901730060577,
            0.36989954113960266
        ],
        [
            0.24024833738803864,
            0.149131640791893,
            -0.14374889433383942,
            -0.0942390039563179,
            0.7666376829147339,
            0.07467176765203476,
            0.9591943621635437,
            0.46058595180511475
        ],
        [
            -0.025866426527500153,
            -1.5142822265625,
            -1.1973979473114014,
            0.2912570834159851,
            -0.6736676692962646,
            0.3427589535713196,
            0.14727379381656647,
            0.4888138473033905
        ],
        [
            0.06776368618011475,
            0.13776510953903198,
            0.13420994579792023,
            0.14538706839084625,
            0.029880275949835777,
            0.11113325506448746,
            0.19332262873649597,
            -0.074026919901371
        ],
        [
            0.3293837010860443,
            0.49908190965652466,
            0.6924298405647278,
            -0.3710361421108246,
            -0.8455615639686584,
            0.1791064590215683,
            -0.07342351973056793,
            0.16823484003543854
        ],
        [
            0.8442971706390381,
            1.4477860927581787,
            0.9644253849983215,
            0.41764190793037415,
            -0.8271166086196899,
            0.8679307699203491,
            -1.858923077583313,
            -0.6471846699714661
        ],
        [
            -0.09198871999979019,
            -0.08254984766244888,
            -0.0914987325668335,
            -0.03241965174674988,
            0.02568763867020607,
            -0.04950255528092384,
            -0.05867371708154678,
            0.003272945759817958
        ],
        [
            0.8719319105148315,
            0.6991719007492065,
            0.33958548307418823,
            -0.6464908719062805,
            0.7909566760063171,
            0.3869471848011017,
            -0.7682539820671082,
            -0.022765738889575005
        ],
        [
            0.3967876434326172,
            0.20478732883930206,
            -0.9723401665687561,
            -0.27339503169059753,
            -0.49990880489349365,
            0.8353328108787537,
            0.4124723970890045,
            1.8242307901382446
        ],
        [
            0.3615092933177948,
            -0.29414868354797363,
            -0.821596086025238,
            0.382652223110199,
            -0.14348240196704865,
            -0.7135578989982605,
            -0.25441059470176697,
            0.5078878402709961
        ],
        [
            -0.5242059826850891,
            0.10261359810829163,
            -0.10651889443397522,
            0.678337812423706,
            0.5925725698471069,
            -0.07595860213041306,
            0.3615155518054962,
            0.6418062448501587
        ],
        [
            0.16438893973827362,
            0.21984981000423431,
            -0.8488177061080933,
            -0.8739095330238342,
            0.5069937109947205,
            -0.589616596698761,
            0.8494240045547485,
            0.11218743026256561
        ],
        [
            0.019262727349996567,
            0.023362314328551292,
            0.020855044946074486,
            0.007375170011073351,
            -0.00482857646420598,
            0.01251940242946148,
            0.021330546587705612,
            0.0008474012720398605
        ],
        [
            0.21326836943626404,
            -0.0963437482714653,
            0.36362290382385254,
            0.44153037667274475,
            0.264815092086792,
            -0.2458602786064148,
            0.15767723321914673,
            0.5694225430488586
        ],
        [
            -0.6086398959159851,
            0.8624473214149475,
            0.28020262718200684,
            -1.3307292461395264,
            -0.7790820002555847,
            -0.5760519504547119,
            -0.05544497072696686,
            0.7205496430397034
        ],
        [
            -0.04856003820896149,
            -0.07111741602420807,
            0.6007821559906006,
            -0.022208090871572495,
            -0.417380690574646,
            -0.33424490690231323,
            -0.37618401646614075,
            -1.2447460889816284
        ],
        [
            0.4324145019054413,
            -1.0058138370513916,
            -0.4580354392528534,
            0.21882222592830658,
            -0.9055896997451782,
            1.700804352760315,
            -0.7501571774482727,
            -1.222183346748352
        ],
        [
            -1.5864819288253784,
            0.7824457287788391,
            1.0385818481445312,
            -0.56424880027771,
            0.12408673763275146,
            -0.07689116150140762,
            0.7755532264709473,
            -0.017634192481637
        ],
        [
            0.5912321209907532,
            -0.4792300760746002,
            -0.6262611150741577,
            -0.5906926989555359,
            0.20156849920749664,
            -1.146013617515564,
            -0.5549599528312683,
            -0.8290256857872009
        ],
        [
            -0.19181254506111145,
            0.07793232798576355,
            -0.4992741644382477,
            1.7607545852661133,
            -1.0583548545837402,
            -1.2250388860702515,
            1.1283094882965088,
            0.048592932522296906
        ],
        [
            -0.018349995836615562,
            0.14672701060771942,
            0.8972496390342712,
            -1.6392031908035278,
            0.435940146446228,
            1.060567855834961,
            0.18762168288230896,
            0.300597608089447
        ],
        [
            1.0492433309555054,
            -0.24128809571266174,
            -0.1279907375574112,
            0.1450444459915161,
            0.08511365950107574,
            0.7850965857505798,
            -0.6791185736656189,
            -0.6704924702644348
        ],
        [
            0.3414570093154907,
            0.7113057374954224,
            1.1793768405914307,
            -0.6762849688529968,
            1.3627806901931763,
            1.6675792932510376,
            0.26299721002578735,
            0.7048434019088745
        ],
        [
            0.06976743042469025,
            0.8314409255981445,
            0.7132180333137512,
            -0.3802483081817627,
            -1.0819284915924072,
            -0.6440554857254028,
            -1.0780822038650513,
            0.30017977952957153
        ],
        [
            0.46210652589797974,
            0.7100499868392944,
            0.42294517159461975,
            0.48178941011428833,
            0.011388609185814857,
            0.7350415587425232,
            0.5411190986633301,
            0.563872218132019
        ],
        [
            -0.10203497111797333,
            -0.09474734216928482,
            -0.11312601715326309,
            0.08426651358604431,
            0.10794773697853088,
            0.030891891568899155,
            0.008247019723057747,
            -0.01656625233590603
        ],
        [
            0.49137336015701294,
            0.45706799626350403,
            0.26418232917785645,
            -0.10159711539745331,
            -0.29202893376350403,
            0.020977087318897247,
            0.016552532091736794,
            1.6797646284103394
        ],
        [
            -0.1426776945590973,
            0.10444813966751099,
            1.2639333009719849,
            -0.16614152491092682,
            0.24830719828605652,
            0.3496050536632538,
            1.4315900802612305,
            0.8141672015190125
        ],
        [
            -0.06457032263278961,
            0.18005681037902832,
            1.1177747249603271,
            0.31756675243377686,
            -0.9955245852470398,
            -0.736521303653717,
            0.3848308026790619,
            -0.5472375750541687
        ],
        [
            0.44674164056777954,
            -0.10640688240528107,
            0.6003481149673462,
            -0.2810271084308624,
            0.2740735113620758,
            1.033046841621399,
            0.6773467063903809,
            0.38328367471694946
        ],
        [
            -0.44284218549728394,
            0.06324610859155655,
            0.05224483832716942,
            -0.5074606537818909,
            -0.20309044420719147,
            0.687412440776825,
            -0.10889913886785507,
            0.1625128984451294
        ],
        [
            -0.001271517714485526,
            0.015696225687861443,
            -0.028727559372782707,
            -0.07481227815151215,
            -0.10576216876506805,
            -0.08506923168897629,
            -0.041168082505464554,
            0.01910325512290001
        ],
        [
            0.5170959830284119,
            0.3550359010696411,
            -0.7911041975021362,
            0.4110974669456482,
            -0.4279765486717224,
            0.3386343717575073,
            -0.5286387205123901,
            0.5641536712646484
        ],
        [
            -0.054754991084337234,
            -1.2196041345596313,
            0.8839148879051208,
            1.7370010614395142,
            -1.0089540481567383,
            -2.9001286029815674,
            0.11406072229146957,
            -0.06609315425157547
        ],
        [
            0.3430253863334656,
            -1.2082465887069702,
            0.2064608931541443,
            0.11847657710313797,
            0.10853362828493118,
            0.3604007065296173,
            1.3263380527496338,
            0.9627951979637146
        ],
        [
            0.9800153970718384,
            0.13623261451721191,
            0.3382721245288849,
            -0.1608218550682068,
            0.018989453092217445,
            -0.15786206722259521,
            0.23429131507873535,
            1.6361316442489624
        ],
        [
            0.5694904327392578,
            0.6887731552124023,
            -0.002191895619034767,
            -0.7489659786224365,
            0.5664324164390564,
            0.07400665432214737,
            -0.5898216366767883,
            0.13185212016105652
        ],
        [
            -0.4455548822879791,
            0.14082925021648407,
            0.3992837071418762,
            -0.23028330504894257,
            -0.23602209985256195,
            -0.5188217163085938,
            0.4292517304420471,
            0.34313222765922546
        ],
        [
            0.12451395392417908,
            0.4253953993320465,
            -0.5231705904006958,
            0.34225380420684814,
            -0.340589702129364,
            0.2448936402797699,
            -0.07169794291257858,
            0.2508780360221863
        ],
        [
            0.11119353026151657,
            -0.21093393862247467,
            0.256658136844635,
            -0.007496630772948265,
            0.14625105261802673,
            -0.058545734733343124,
            0.351469486951828,
            -0.17889103293418884
        ],
        [
            0.4862866699695587,
            0.14267747104167938,
            0.6270381212234497,
            -0.15872161090373993,
            0.4821970760822296,
            0.2902311384677887,
            -0.09361747652292252,
            0.06859023123979568
        ],
        [
            -1.2780368328094482,
            -0.5255043506622314,
            0.5628491044044495,
            0.7189531326293945,
            -2.961494207382202,
            -1.5571566820144653,
            -0.22216717898845673,
            0.6890090107917786
        ],
        [
            0.6831294298171997,
            -0.03141266852617264,
            0.2822777330875397,
            -0.13486990332603455,
            -0.6768998503684998,
            0.5441581010818481,
            1.5375230312347412,
            0.18839648365974426
        ],
        [
            0.645244300365448,
            -0.008699225261807442,
            0.03151756525039673,
            -0.16388384997844696,
            -0.7209243178367615,
            -1.168704867362976,
            -0.6398365497589111,
            0.20621953904628754
        ],
        [
            -0.8724160194396973,
            0.4775218963623047,
            -1.0713821649551392,
            1.1196084022521973,
            0.6235595941543579,
            1.1833531856536865,
            -1.7111698389053345,
            0.3119109570980072
        ],
        [
            0.13468964397907257,
            0.1446869969367981,
            0.15836502611637115,
            -0.07712912559509277,
            -0.05009123682975769,
            0.021706653758883476,
            0.06298645585775375,
            0.07286982238292694
        ],
        [
            -0.6594434976577759,
            0.2989608943462372,
            1.5629899501800537,
            -0.06375304609537125,
            0.4922525882720947,
            -1.4695252180099487,
            -0.22661226987838745,
            0.20052556693553925
        ],
        [
            1.3567651510238647,
            0.6740124225616455,
            -0.12351582944393158,
            -0.9924201965332031,
            1.1329106092453003,
            -0.6535518169403076,
            -1.0541654825210571,
            0.032634951174259186
        ],
        [
            -0.9411609768867493,
            -0.4141293168067932,
            0.006266999524086714,
            -1.9448498487472534,
            0.2968086898326874,
            -1.3256652355194092,
            -0.2090548574924469,
            -1.3453351259231567
        ],
        [
            -0.40152907371520996,
            -1.0459760427474976,
            0.5199769139289856,
            0.5880954265594482,
            -0.15367360413074493,
            0.8659310936927795,
            0.28261637687683105,
            1.0146514177322388
        ],
        [
            -0.08844669908285141,
            0.7126339077949524,
            1.060612678527832,
            0.06003949046134949,
            0.7824901938438416,
            0.706996500492096,
            -0.233049675822258,
            1.5849263668060303
        ],
        [
            1.0870459079742432,
            0.339320570230484,
            0.5592470765113831,
            -0.982607364654541,
            0.08439911901950836,
            -0.40713757276535034,
            0.304385781288147,
            0.47264108061790466
        ],
        [
            -0.6479470133781433,
            -0.004583680536597967,
            0.8903931379318237,
            0.3589191436767578,
            -0.24309659004211426,
            -1.0760340690612793,
            -0.2025371789932251,
            -0.17781120538711548
        ],
        [
            -0.4056028127670288,
            0.01644287444651127,
            -0.2984754741191864,
            -0.7456371188163757,
            -0.8560272455215454,
            0.39782869815826416,
            -0.15996909141540527,
            -1.2306978702545166
        ],
        [
            -0.006953496020287275,
            0.002584880916401744,
            0.005476131569594145,
            -0.018776042386889458,
            -0.022790081799030304,
            -0.026009825989603996,
            -0.00872779544442892,
            0.006176865193992853
        ],
        [
            1.0551018714904785,
            0.376559317111969,
            0.6349961161613464,
            -0.44655588269233704,
            0.41665318608283997,
            -0.1834118366241455,
            0.09312732517719269,
            -0.06122257560491562
        ],
        [
            0.7173741459846497,
            -1.1157335042953491,
            0.6459644436836243,
            -0.9533836245536804,
            -0.051023222506046295,
            0.48517295718193054,
            0.437212735414505,
            0.29747113585472107
        ],
        [
            0.632088840007782,
            0.08571239560842514,
            0.6858115196228027,
            0.3065894544124603,
            0.27412980794906616,
            0.22113396227359772,
            -0.014593898318707943,
            0.41297534108161926
        ],
        [
            0.2120075225830078,
            -0.5568763613700867,
            -0.41071173548698425,
            -0.06934084743261337,
            -0.28723031282424927,
            -0.5072211623191833,
            -0.269161581993103,
            0.3468529284000397
        ],
        [
            1.4574828147888184,
            -0.662219762802124,
            -0.10289169102907181,
            -0.42631447315216064,
            0.8397539258003235,
            -0.4897637665271759,
            0.3996165692806244,
            -1.8999686241149902
        ],
        [
            -0.46463143825531006,
            0.013944693841040134,
            -0.014219013974070549,
            -0.5376047492027283,
            -0.1510341316461563,
            0.8168830871582031,
            -0.09163137525320053,
            0.20510254800319672
        ],
        [
            0.8011409640312195,
            -0.022752001881599426,
            1.199068546295166,
            -0.9113998413085938,
            0.6504058241844177,
            0.03675175458192825,
            -0.7646878957748413,
            1.8544502258300781
        ],
        [
            -0.5828768610954285,
            0.22556957602500916,
            -0.5512509346008301,
            0.9286571741104126,
            0.31403648853302,
            0.2115677297115326,
            0.345838725566864,
            -0.42032134532928467
        ],
        [
            0.3558146357536316,
            1.4447052478790283,
            -0.12270359694957733,
